svm_type nu_svr
kernel_type rbf
gamma 0.15
nr_class 2
total_sv 255
rho -0.140528
SV
-80 1:0.81951419 2:0.62857341 3:0.41064775 4:0.25004694 5:0.234287 6:0.99999844 7:0.98597752 8:0.97923105 9:0.97803747 
-22.10286943591177 1:0.81951419 2:0.62857341 3:0.41064775 4:0.25004694 5:0.18224844 6:0.99999788 7:0.9859769 8:0.97922992 9:0.97803581 
80 1:0.81951419 2:0.62857341 3:0.41064775 4:0.25004694 5:0.021800689 6:0.99999937 7:0.98597789 8:0.9792303 9:0.97803642 
-80 1:0.81951419 2:0.62857341 3:0.41064775 4:0.25004694 5:0.19281245 6:0.99999893 7:0.98597774 8:0.97922988 9:0.9780361 
-80 1:0.81951419 2:0.62857341 3:0.41064775 4:0.25004694 5:0.22682477 6:0.99999673 7:0.98597634 8:0.9792294 9:0.97803503 
80 1:0.81951419 2:0.62857341 3:0.41064775 4:0.25004694 6:1 7:0.98598076 8:0.97923477 9:0.97804088 
32.16028034310964 1:0.81951419 2:0.62857341 3:0.41064775 4:0.25004694 5:1 6:0.99999805 7:0.98597713 8:0.97922995 9:0.97803624 
80 1:0.81951419 2:0.62857341 3:0.41064775 4:0.25004694 5:0.71182509 6:0.99999714 7:0.98597633 8:0.97922879 9:0.97803496 
31.15114216164844 1:0.81951419 2:0.62857341 3:0.41064775 4:0.25004694 5:0.028073059 6:0.99999977 7:0.9859802 8:0.97923378 9:0.97803972 
-80 1:0.81951419 2:0.62857341 3:0.41064775 4:0.25004694 5:0.34558132 6:0.99999938 7:0.98598018 8:0.97923401 9:0.97804003 
-80 1:0.81951419 2:0.62857341 3:0.41064775 4:0.25004694 5:0.28107704 6:0.99999994 7:0.98598075 8:0.97923467 9:0.97804067 
-80 1:0.81951419 2:0.62857341 3:0.41064775 4:0.25004694 5:0.3228518 6:0.99999724 7:0.98597589 8:0.97922749 9:0.97803324 
35.55002814124975 1:0.37887436 2:0.4243589 3:0.40244082 4:0.25336332 5:0.39986181 6:0.3441684 7:0.96561019 8:0.99316344 9:0.99477036 
80 1:0.58913276 2:0.39510241 3:0.34013262 4:0.23271551 5:0.39986181 6:0.26988357 7:0.66087653 8:0.77460685 9:0.85467594 
80 1:0.48999752 2:0.41326143 3:0.23376807 4:0.20914719 5:0.39986181 6:0.14840578 7:0.38803035 8:0.52578693 9:0.66524784 
80 1:0.47594123 2:0.4384097 3:0.33704035 4:0.23190648 5:0.39986181 6:0.21387047 7:0.61430681 8:0.74612784 9:0.83465341 
80 1:0.49995181 2:0.56387046 3:0.41340745 4:0.25410007 5:0.39986181 6:0.4890126 7:0.99150312 8:0.98864889 9:0.98847982 
80 1:0.31913568 2:0.30684916 3:0.35183782 4:0.25224614 5:0.39986181 6:0.26011005 7:0.79888625 8:0.9741041 9:0.99247702 
-80 1:0.43714591 2:0.43741604 3:0.40521828 4:0.25521855 5:0.17814641 6:0.41905908 7:0.969991 8:0.99264259 9:0.99348385 
80 1:0.63285753 2:0.40271553 3:0.34299659 4:0.23433946 5:0.17814641 6:0.32542212 7:0.69858749 8:0.79694508 9:0.86598993 
80 1:0.54466212 2:0.42821917 3:0.24108698 4:0.21351211 5:0.17814641 6:0.1828354 7:0.45953614 8:0.59079503 9:0.71553402 
80 1:0.52343375 2:0.45165633 3:0.34362003 4:0.23527783 5:0.17814641 6:0.26680134 7:0.69044151 8:0.80474334 9:0.87554801 
80 1:0.55267322 2:0.57145196 3:0.41487135 4:0.2547908 5:0.17814641 6:0.58913415 7:0.99129239 8:0.98759349 9:0.98673673 
54.80185780471771 1:0.38089287 2:0.32443741 3:0.35958726 4:0.25410133 5:0.17814641 6:0.31685525 7:0.8262248 8:0.97659707 9:0.99183616 
-80 1:0.52935489 2:0.46388874 3:0.41068822 4:0.25418747 5:0.234287 6:0.51912086 7:0.97049982 8:0.99088296 9:0.99097534 
80 1:0.78643356 2:0.4566388 3:0.36283332 4:0.23992167 5:0.234287 6:0.41565673 7:0.75166314 8:0.82137136 9:0.87970565 
80 1:0.71759289 2:0.54792785 3:0.25300855 4:0.22284244 5:0.234287 6:0.24369086 7:0.57093333 8:0.67891778 9:0.78336844 
-80 1:0.67824635 2:0.52710145 3:0.36187306 4:0.23983981 5:0.234287 6:0.34659998 7:0.79023646 8:0.87197552 9:0.91708645 
80 1:0.64214673 2:0.59684698 3:0.41574648 4:0.25415002 5:0.234287 6:0.71760206 7:0.99091482 8:0.98674283 9:0.98614961 
-80 1:0.46725321 2:0.34548208 3:0.36623425 4:0.25277246 5:0.234287 6:0.39385279 7:0.84104093 8:0.97203506 9:0.9872969 
-80 1:0.53201202 2:0.46587759 3:0.40674607 4:0.25495976 5:0.18224844 6:0.51952555 7:0.97343938 8:0.99150799 9:0.99160289 
80 1:0.75297908 2:0.46515866 3:0.35774562 4:0.23728312 5:0.18224844 6:0.46074269 7:0.79590737 8:0.8744462 9:0.9195394 
80 1:0.65961064 2:0.48562102 3:0.24960793 4:0.21629764 5:0.18224844 6:0.34274991 7:0.59025278 8:0.69703538 9:0.79418044 
-80 1:0.64229757 2:0.50269325 3:0.35186332 4:0.23656643 5:0.18224844 6:0.41255973 7:0.75323756 8:0.84540673 9:0.90177878 
80 1:0.63012713 2:0.58946262 3:0.41563787 4:0.2543329 5:0.18224844 6:0.66803983 7:0.9914026 8:0.98682862 9:0.9856145 
80 1:0.48327293 2:0.35808488 3:0.35737849 4:0.2539061 5:0.18224844 6:0.43367411 7:0.85791846 8:0.9787586 9:0.99008218 
19.71558885510451 1:0.71396216 2:0.60490222 3:0.41459038 4:0.25404644 5:0.086091727 6:0.81418198 7:0.99216347 8:0.98670637 9:0.98551131 
-80 1:0.62253181 2:0.42088776 3:0.37036129 4:0.253445 5:0.086091727 6:0.59681138 7:0.93404061 8:0.98645652 9:0.99087773 
-80 1:0.65440554 2:0.50598209 3:0.40836639 4:0.25402442 5:0.086091727 6:0.69203062 7:0.98942147 8:0.992472 9:0.99183347 
80 1:0.77846762 2:0.49434503 3:0.3617544 4:0.23828653 5:0.086091727 6:0.62158226 7:0.86980497 8:0.90711692 9:0.93389758 
-80 1:0.75127486 2:0.53784743 3:0.27461544 4:0.2211798 5:0.086091727 6:0.45982468 7:0.75399931 8:0.82610634 9:0.88350584 
-80 1:0.72367317 2:0.53518628 3:0.36397394 4:0.23888414 5:0.086091727 6:0.54950495 7:0.88386018 8:0.92563145 9:0.94794133 
80 1:0.77487678 2:0.51759333 3:0.37531345 4:0.23746664 5:0.021800689 6:0.51693007 7:0.84699213 8:0.89508504 9:0.92440324 
-80 1:0.77228312 2:0.5703252 3:0.29444065 4:0.22480066 5:0.021800689 6:0.33704001 7:0.70596447 8:0.80753488 9:0.87432199 
-80 1:0.75460476 2:0.54781601 3:0.37202648 4:0.24245129 5:0.021800689 6:0.43776624 7:0.87255915 8:0.92664151 9:0.95081255 
-80 1:0.72267114 2:0.60330424 3:0.41575396 4:0.25452486 5:0.021800689 6:0.76091471 7:0.99469468 8:0.98920072 9:0.98761216 
-80 1:0.65954993 2:0.47866833 3:0.38430091 4:0.2555385 5:0.021800689 6:0.52260646 7:0.93920994 8:0.99027412 9:0.99342405 
-80 1:0.6820006 2:0.54079288 3:0.41314746 4:0.25590565 5:0.021800689 6:0.63230177 7:0.9945907 8:0.9962224 9:0.99524996 
80 1:0.72424644 2:0.45432189 3:0.3513154 4:0.23585231 5:0.19281245 6:0.47535496 7:0.78590207 8:0.85532428 9:0.90179368 
-10.63247610358191 1:0.68375496 2:0.4997722 3:0.24768983 4:0.21882056 5:0.19281245 6:0.29520545 7:0.62963921 8:0.73884805 9:0.83039554 
-80 1:0.64935281 2:0.49606029 3:0.35703137 4:0.23927098 5:0.19281245 6:0.40944592 7:0.83909928 8:0.90459702 9:0.93762261 
-80 1:0.64011116 2:0.6012584 3:0.41737461 4:0.25502977 5:0.19281245 6:0.77748289 7:0.99366864 8:0.98891608 9:0.98727152 
80 1:0.49615738 2:0.36566631 3:0.36370944 4:0.25513903 5:0.19281245 6:0.49720199 7:0.88188516 8:0.98340949 9:0.99340555 
-80 1:0.55739963 2:0.49111364 3:0.41093582 4:0.25612073 5:0.19281245 6:0.62457146 7:0.98349465 8:0.99537082 9:0.99463956 
80 1:0.6867359 2:0.5338207 3:0.40961671 4:0.25548834 5:0.11917793 6:0.51512108 7:1 8:0.99854645 9:0.99696616 
80 1:0.74698679 2:0.51024415 3:0.36305052 4:0.23807282 5:0.11917793 6:0.38835201 7:0.86253515 8:0.90718551 9:0.93379052 
80 1:0.72998678 2:0.54084676 3:0.28304095 4:0.22311601 5:0.11917793 6:0.23644115 7:0.73577902 8:0.8323958 9:0.89228161 
80 1:0.71418776 2:0.53358467 3:0.36516688 4:0.24021559 5:0.11917793 6:0.32542548 7:0.88362297 8:0.93214871 9:0.95318774 
80 1:0.727384 2:0.60536997 3:0.41441015 4:0.25445617 5:0.11917793 6:0.62132265 7:0.99688914 8:0.99089561 9:0.98911514 
80 1:0.66326766 2:0.46243589 3:0.37641319 4:0.25459695 5:0.11917793 6:0.42123172 7:0.95893945 8:0.9941337 9:0.99591077 
-80 1:0.67825312 2:0.53165261 3:0.4121473 4:0.25568736 5:0.066417642 6:0.40577158 7:0.99197833 8:0.99105683 9:0.99018134 
80 1:0.75822604 2:0.51365351 3:0.36806245 4:0.23970579 5:0.066417642 6:0.32465185 7:0.87800059 8:0.91321097 9:0.93596128 
-80 1:0.75585472 2:0.56236277 3:0.28940743 4:0.22522977 5:0.066417642 6:0.20931646 7:0.78227431 8:0.85369953 9:0.90151511 
-80 1:0.73419118 2:0.54775422 3:0.36977431 4:0.24102664 5:0.066417642 6:0.26813833 7:0.89883814 8:0.93917845 9:0.95715319 
80 1:0.72205062 2:0.60664785 3:0.41528342 4:0.2543249 5:0.066417642 6:0.50205733 7:0.99148261 8:0.9855734 9:0.98402793 
-80 1:0.65550324 2:0.45925819 3:0.38185816 4:0.25513662 5:0.066417642 6:0.33790152 7:0.95354674 8:0.9874593 9:0.98961059 
80 1:0.68305407 2:0.52808006 3:0.41096097 4:0.25588672 5:0.097835012 6:0.52973834 7:0.99489819 8:0.99899287 9:0.99881022 
80 1:0.74391524 2:0.49696719 3:0.3587665 4:0.23685795 5:0.097835012 6:0.38406579 7:0.82330466 8:0.88058955 9:0.91789163 
80 1:0.72858661 2:0.51478361 3:0.26179473 4:0.22004737 5:0.097835012 6:0.21947663 7:0.67205076 8:0.78625742 9:0.86620782 
80 1:0.7024295 2:0.5077759 3:0.36223426 4:0.23994441 5:0.097835012 6:0.31420896 7:0.8693056 8:0.9263084 9:0.95106867 
80 1:0.7388736 2:0.61257114 3:0.41673906 4:0.25477594 5:0.097835012 6:0.66287442 7:0.99612391 8:0.99144587 9:0.99021626 
80 1:0.64189875 2:0.43088853 3:0.37022785 4:0.25484765 5:0.097835012 6:0.40979882 7:0.92283852 8:0.99092413 9:0.99708981 
-80 1:0.4458204 2:0.43159524 3:0.40783021 4:0.25499067 5:0.4398226 6:0.50289318 7:0.96481528 8:0.98647614 9:0.98746546 
80 1:0.74671781 2:0.42774478 3:0.36105995 4:0.23781413 5:0.4398226 6:0.423479 7:0.73620519 8:0.80166337 9:0.85862758 
-54.73688148895351 1:0.65284155 2:0.48609428 3:0.24589776 4:0.21749673 5:0.4398226 6:0.27142109 7:0.57590588 8:0.67804463 9:0.77366879 
-80 1:0.62973226 2:0.46725929 3:0.3557701 4:0.23640961 5:0.4398226 6:0.36240098 7:0.77727293 8:0.8576733 9:0.90604745 
-80 1:0.56222374 2:0.58009217 3:0.41614201 4:0.25424863 5:0.4398226 6:0.64288289 7:0.98730551 8:0.98363 9:0.98299067 
-80 1:0.37595003 2:0.30400764 3:0.35942711 4:0.25404702 5:0.4398226 6:0.40901302 7:0.84112214 8:0.96911586 9:0.98524838 
-80 1:0.46495623 2:0.46161238 3:0.40711193 4:0.25506523 5:0.47374309 6:0.56702547 7:0.96686051 8:0.98655594 9:0.98761707 
80 1:0.78037144 2:0.47301286 3:0.34593368 4:0.23842541 5:0.47374309 6:0.48527215 7:0.77378889 8:0.8294399 9:0.87897218 
80 1:0.70080646 2:0.505021 3:0.23422176 4:0.21599453 5:0.47374309 6:0.32849821 7:0.63412781 8:0.72424177 9:0.80776664 
-80 1:0.67810935 2:0.48078749 3:0.3559228 4:0.23603346 5:0.47374309 6:0.4281431 7:0.81293958 8:0.87587613 9:0.9158857 
13.93569667442683 1:0.56738128 2:0.58997196 3:0.41462298 4:0.25437699 5:0.47374309 6:0.69731755 7:0.98759228 8:0.98401851 9:0.98339307 
-80 1:0.40441445 2:0.33527092 3:0.35314662 4:0.25385909 5:0.47374309 6:0.47240445 7:0.86425407 8:0.97094286 9:0.98536178 
80 1:0.78007996 2:0.52119946 3:0.36765875 4:0.23907646 5:0.22682477 6:0.66143832 7:0.89322992 8:0.92440007 9:0.94514836 
76.42898260295539 1:0.76900541 2:0.53548294 3:0.28254672 4:0.22348541 5:0.22682477 6:0.50226978 7:0.79998623 8:0.87112795 9:0.91672385 
80 1:0.76176437 2:0.61166855 3:0.41556175 4:0.25455531 5:0.22682477 6:0.8918021 7:0.9940923 8:0.9884374 9:0.98693449 
80 1:0.68964905 2:0.46129797 3:0.37808774 4:0.25459297 5:0.22682477 6:0.67738372 7:0.95795514 8:0.99042204 9:0.99255743 
-80 1:0.6442812 2:0.49588965 3:0.4087005 4:0.25534924 5:0.068650882 6:0.65132381 7:0.98359994 8:0.99325243 9:0.99348335 
80 1:0.76273865 2:0.47933077 3:0.35608705 4:0.23449817 5:0.068650882 6:0.55223384 7:0.82308831 8:0.87721225 9:0.91773406 
-80 1:0.71624414 2:0.49915085 3:0.24598016 4:0.21373643 5:0.068650882 6:0.4055447 7:0.67016988 8:0.76453807 9:0.84535021 
-80 1:0.70252702 2:0.50951417 3:0.36002449 4:0.23925105 5:0.068650882 6:0.50064055 7:0.85695459 8:0.91925107 9:0.94910468 
80 1:0.72923128 2:0.60555606 3:0.41733019 4:0.2545957 5:0.068650882 6:0.80403073 7:0.99251429 8:0.98783851 9:0.98683393 
-80 1:0.73217548 2:0.53781687 3:0.41006544 4:0.25536873 5:0.041776739 6:0.79163356 7:0.99845735 8:0.99703325 9:0.99661236 
80 1:0.79173669 2:0.52902423 3:0.37169428 4:0.24040643 5:0.041776739 6:0.67562667 7:0.90227646 8:0.92801327 9:0.94468245 
-80 1:0.77878936 2:0.55250244 3:0.29104956 4:0.22802918 5:0.041776739 6:0.50546048 7:0.81671677 8:0.87932347 9:0.91871738 
-80 1:0.76449808 2:0.54714348 3:0.37211239 4:0.24297277 5:0.041776739 6:0.61270837 7:0.93314706 8:0.95678786 9:0.96655131 
80 1:0.77363275 2:0.61195836 3:0.41504551 4:0.25451985 5:0.041776739 6:0.89339822 7:0.99565158 8:0.98997429 9:0.98874292 
80 1:0.70830637 2:0.46718453 3:0.3770063 4:0.25436903 5:0.041776739 6:0.69200908 7:0.96322615 8:0.99221794 9:0.99435243 
-80 1:0.69779446 2:0.47600491 3:0.24780772 4:0.21362145 5:0.16508613 6:0.37066561 7:0.68205552 8:0.77855222 9:0.85477985 
-80 1:0.68624559 2:0.49457537 3:0.35758431 4:0.23875986 5:0.16508613 6:0.48501357 7:0.86813886 8:0.92335061 9:0.94981105 
-80 1:0.71672334 2:0.59911627 3:0.41630389 4:0.25442163 5:0.16508613 6:0.80947243 7:0.99667154 8:0.99229252 9:0.99144964 
-80 1:0.57193306 2:0.37087491 3:0.36042786 4:0.25330352 5:0.16508613 6:0.54883782 7:0.91373593 8:0.99038047 9:0.9979189 
-80 1:0.62188737 2:0.47966226 3:0.40758289 4:0.25471289 5:0.16508613 6:0.66307091 7:0.99290085 8:1 9:1 
80 1:0.74760362 2:0.46365634 3:0.35307877 4:0.23372231 5:0.16508613 6:0.54763091 7:0.83282226 8:0.88407583 9:0.92025499 
80 1:0.26076315 2:0.13643354 3:0.13612528 4:0.15235446 5:0.39986181 6:0.19423503 7:0.36645732 8:0.50086113 9:0.64396399 
8.730764181010237 1:0.65270301 2:0.55801964 3:0.3929504 4:0.24698674 5:0.39986181 6:0.78058853 7:0.96814434 8:0.9704625 9:0.97321206 
80 1:0.47092797 2:0.43409009 3:0.35046931 4:0.23833215 5:0.39986181 6:0.53446688 7:0.89075831 8:0.93612736 9:0.95684761 
80 1:0.32657309 2:0.26170562 3:0.25541204 4:0.2111352 5:0.39986181 6:0.33122535 7:0.65805926 8:0.78715572 9:0.87431796 
80 1:0.32337509 2:0.15362064 3:0.13977572 4:0.15496766 5:0.17814641 6:0.21993189 7:0.39208546 8:0.52305376 9:0.65769067 
-80 1:0.67823691 2:0.56166171 3:0.39362211 4:0.24711268 5:0.17814641 6:0.82895379 7:0.96899795 8:0.97085926 9:0.97337081 
61.61546208251166 1:0.51898904 2:0.44347571 3:0.35260812 4:0.23889034 5:0.17814641 6:0.60297814 7:0.89825563 8:0.93924787 9:0.95836916 
-80 1:0.38653257 2:0.2772129 3:0.25938601 4:0.21270093 5:0.17814641 6:0.37994363 7:0.67786288 8:0.798344 9:0.87942995 
80 1:0.35942084 2:0.22945497 3:0.22043974 4:0.1976852 5:0.17814641 6:0.32075722 7:0.58422702 8:0.718552 9:0.82396291 
80 1:0.60203619 2:0.46852117 3:0.3571132 4:0.24019174 5:0.234287 6:0.70879318 7:0.91333048 8:0.94598856 9:0.96298991 
80 1:0.48335526 2:0.30974055 3:0.26959679 4:0.21691994 5:0.234287 6:0.47634352 7:0.72573442 8:0.82666299 9:0.90121985 
80 1:0.45476402 2:0.26035979 3:0.23251732 4:0.20346215 5:0.234287 6:0.40863979 7:0.64230365 8:0.75827587 9:0.85710363 
80 1:0.41207805 2:0.17635021 3:0.15412781 4:0.16451013 5:0.234287 6:0.2899643 7:0.46449499 8:0.58669202 9:0.72000214 
80 1:0.72198481 2:0.57249934 3:0.3950032 4:0.2474136 5:0.234287 6:0.88821701 7:0.97152864 8:0.97232147 9:0.97446486 
-80 1:0.44531342 2:0.21620731 3:0.15822695 4:0.15945316 5:0.18224844 6:0.36775299 7:0.54701054 8:0.66323236 9:0.77023562 
-80 1:0.72551203 2:0.57425055 3:0.39466794 4:0.24720607 5:0.18224844 6:0.87222522 7:0.97145857 8:0.97218201 9:0.97416646 
-80 1:0.50158269 2:0.32882311 3:0.26926574 4:0.21455563 5:0.18224844 6:0.50286598 7:0.76167789 8:0.85604578 9:0.91475667 
-80 1:0.47783859 2:0.28570116 3:0.23316795 4:0.20026577 5:0.18224844 6:0.45245854 7:0.69245508 8:0.80184402 9:0.87999774 
-80 1:0.59111496 2:0.29754815 3:0.18471951 4:0.16603581 5:0.086091727 6:0.46256086 7:0.63066487 8:0.71597782 9:0.79766998 
-80 1:0.76227153 2:0.58695426 3:0.39688911 4:0.24730178 5:0.086091727 6:0.90952904 7:0.97243207 8:0.9716266 9:0.97325424 
-80 1:0.62815188 2:0.39281425 3:0.28795422 4:0.2175762 5:0.086091727 6:0.62388556 7:0.82482346 8:0.88431229 9:0.92491617 
-80 1:0.61284449 2:0.3570242 3:0.2551336 4:0.2043476 5:0.086091727 6:0.56781221 7:0.76665528 8:0.83939795 9:0.89526888 
-80 1:0.7104937 2:0.53136628 3:0.37023804 4:0.24084474 5:0.021800689 6:0.76107281 7:0.93361621 8:0.95312543 9:0.96442249 
-80 1:0.65749149 2:0.43170097 3:0.29891764 4:0.21868647 5:0.021800689 6:0.54798053 7:0.79102332 8:0.86801569 9:0.91759122 
-80 1:0.64515518 2:0.39891394 3:0.26672889 4:0.20561862 5:0.021800689 6:0.48090801 7:0.71734701 8:0.81358402 9:0.88266871 
-80 1:0.62663973 2:0.33976438 3:0.1946925 4:0.16712983 5:0.021800689 6:0.35841662 7:0.54503576 8:0.66072094 9:0.76423522 
80 1:0.43536217 2:0.18227428 3:0.14357315 4:0.15601346 5:0.19281245 6:0.30447658 7:0.45741477 8:0.58240153 9:0.70690745 
80 1:0.72047096 2:0.57474159 3:0.39414097 4:0.24713935 5:0.19281245 6:0.88982349 7:0.96784312 8:0.96976025 9:0.97279833 
80 1:0.60548202 2:0.4727338 3:0.35438867 4:0.23916875 5:0.19281245 6:0.74141191 7:0.91355745 8:0.94451607 9:0.9608064 
80 1:0.49785622 2:0.31326376 3:0.26281113 4:0.21340071 5:0.19281245 6:0.51699145 7:0.73154072 8:0.82883804 9:0.89645182 
80 1:0.47242212 2:0.26390401 3:0.22423268 4:0.19854048 5:0.19281245 6:0.44301048 7:0.64653586 8:0.76065984 9:0.85073503 
80 1:0.63115802 2:0.32798536 3:0.16977672 4:0.14947589 5:0.11917793 6:0.21071212 7:0.50092024 8:0.60922091 9:0.7053166 
80 1:0.76733119 2:0.59305675 3:0.39788724 4:0.24768643 5:0.11917793 6:0.8420489 7:0.97448121 8:0.97318285 9:0.9746028 
80 1:0.71091963 2:0.52812167 3:0.36721978 4:0.24113444 5:0.11917793 6:0.6379039 7:0.93875165 8:0.9547408 9:0.9645004 
80 1:0.66152199 2:0.42832373 3:0.29516028 4:0.21964935 5:0.11917793 6:0.42613525 7:0.81227286 8:0.87800096 9:0.91943652 
80 1:0.63508961 2:0.34553626 3:0.19783843 4:0.17049718 5:0.11917793 6:0.25436186 7:0.57993838 8:0.68728987 9:0.77605049 
-80 1:0.62460499 2:0.32624896 3:0.17168345 4:0.15109251 5:0.066417642 6:0.21485756 7:0.6351714 8:0.70559558 9:0.77677001 
80 1:0.70758427 2:0.52911541 3:0.36940711 4:0.24129533 5:0.066417642 6:0.54680743 7:0.95376824 8:0.96399054 9:0.97029419 
80 1:0.65732095 2:0.4295602 3:0.29945196 4:0.22013882 5:0.066417642 6:0.36284433 7:0.85720287 8:0.90614144 9:0.93858927 
-80 1:0.62912774 2:0.34485409 3:0.20110902 4:0.17169114 5:0.066417642 6:0.24380256 7:0.69024215 8:0.7625159 9:0.83004773 
80 1:0.58488895 2:0.23742798 3:0.12698085 4:0.1337022 5:0.097835012 6:0.19417925 7:0.40625192 8:0.51773183 9:0.63506823 
80 1:0.76640426 2:0.58627933 3:0.39559505 4:0.24721379 5:0.097835012 6:0.85849507 7:0.97259743 8:0.97192819 9:0.97382218 
80 1:0.7017267 2:0.50407293 3:0.35863755 4:0.2392346 5:0.097835012 6:0.65336285 7:0.92442506 8:0.94775328 9:0.96129108 
80 1:0.63400758 2:0.37185222 3:0.27232524 4:0.21352842 5:0.097835012 6:0.42725002 7:0.75840467 8:0.84349443 9:0.90149034 
80 1:0.5918759 2:0.26046009 3:0.15849881 4:0.15687511 5:0.097835012 6:0.24062288 7:0.49006877 8:0.60670129 9:0.7189453 
-80 1:0.30865847 2:0.1080345 3:0.11018872 4:0.13343614 5:0.4398226 6:0.27504772 7:0.39949713 8:0.49551774 9:0.61547231 
80 1:0.69309262 2:0.56366314 3:0.39401734 4:0.24715376 5:0.4398226 6:0.85834989 7:0.97152276 8:0.97253753 9:0.97455745 
-80 1:0.53992797 2:0.44488187 3:0.35411933 4:0.23919667 5:0.4398226 6:0.67393479 7:0.90818483 8:0.94427306 9:0.96219074 
-80 1:0.39783973 2:0.27039554 3:0.26295155 4:0.21370822 5:0.4398226 6:0.47437478 7:0.71884652 8:0.81689917 9:0.89224717 
-80 1:0.33119444 2:0.15536626 3:0.16589413 4:0.17024547 5:0.4398226 6:0.34147845 7:0.51709177 8:0.62611935 9:0.7434351 
80 1:0.33958941 2:0.12646748 3:0.10380614 4:0.13642199 5:0.47374309 6:0.30997416 7:0.43336485 8:0.52652029 9:0.64162979 
80 1:0.70118761 2:0.57054548 3:0.39241804 4:0.24710812 5:0.47374309 6:0.87002128 7:0.96901407 8:0.97103022 9:0.97351386 
80 1:0.55739002 2:0.46131841 3:0.34977457 4:0.23932391 5:0.47374309 6:0.71232055 7:0.91144916 8:0.94450645 9:0.96204558 
80 1:0.42435234 2:0.29172894 3:0.25463687 4:0.21453817 5:0.47374309 6:0.51855632 7:0.74062649 8:0.82857536 9:0.8980563 
-54.01187431082968 1:0.36121496 2:0.1745377 3:0.15735138 4:0.17231172 5:0.47374309 6:0.38000643 7:0.54850366 8:0.65107037 9:0.7612885 
-80 1:0.65512293 2:0.31375374 3:0.15568229 4:0.1397232 5:0.22682477 6:0.46292233 7:0.57852572 8:0.66136822 9:0.74156414 
80 1:0.73590282 2:0.52316161 3:0.36467947 4:0.23992434 5:0.22682477 6:0.84598325 7:0.94595255 8:0.95850511 9:0.96654181 
80 1:0.68674393 2:0.41715656 3:0.28795857 4:0.21584578 5:0.22682477 6:0.67340782 7:0.83506079 8:0.8908497 9:0.92732571 
80 1:0.66772274 2:0.36137189 3:0.22706167 4:0.18795394 5:0.22682477 6:0.56975312 7:0.72546354 8:0.80422244 9:0.86650317 
-80 1:0.54014218 2:0.20360315 3:0.11669154 4:0.13177149 5:0.068650882 6:0.37089017 7:0.47975579 8:0.57334475 9:0.67645453 
80 1:0.68230808 2:0.48294469 3:0.35348936 4:0.23780233 5:0.068650882 6:0.77210255 7:0.92444433 8:0.94843847 9:0.96196122 
-80 1:0.59711085 2:0.33994136 3:0.26193396 4:0.21078084 5:0.068650882 6:0.57957669 7:0.77320723 8:0.850663 9:0.90544325 
-80 1:0.56341153 2:0.26569901 3:0.19262311 4:0.18091925 5:0.068650882 6:0.47530098 7:0.64259503 8:0.74010445 9:0.82588514 
-80 1:0.54795966 2:0.22619518 3:0.14678553 4:0.15410896 5:0.068650882 6:0.41227822 7:0.54787505 8:0.64675155 9:0.74648541 
80 1:0.75189269 2:0.5338538 3:0.36891732 4:0.24141625 5:0.041776739 6:0.84725185 7:0.94646014 8:0.95727672 9:0.9642841 
-80 1:0.70995277 2:0.4391554 3:0.30052243 4:0.22090998 5:0.041776739 6:0.68555223 7:0.8490552 8:0.89725279 9:0.92705375 
80 1:0.69327594 2:0.38955233 3:0.24645319 4:0.19632354 5:0.041776739 6:0.57888673 7:0.74515369 8:0.8166676 9:0.86879119 
80 1:0.51774892 2:0.19097252 3:0.11585776 4:0.1257707 5:0.16508613 6:0.30039078 7:0.41675862 8:0.52088992 9:0.63058477 
80 1:0.66685474 2:0.47423332 3:0.35412447 4:0.23806731 5:0.16508613 6:0.76194445 7:0.91900242 8:0.94388647 9:0.95795439 
80 1:0.57532046 2:0.32638694 3:0.26317824 4:0.21013693 5:0.16508613 6:0.55399031 7:0.75654635 8:0.83855919 9:0.89523199 
-80 1:0.79463689 2:0.61742312 3:0.40529941 4:0.24797602 5:0.080806199 6:0.79467806 7:0.94107035 8:0.94828489 9:0.95433153 
80 1:0.68613288 2:0.54893565 3:0.37508363 4:0.23698102 5:0.080806199 6:0.3281855 7:0.63386262 8:0.71069671 9:0.77285585 
-80 1:0.7420166 2:0.58247585 3:0.38621148 4:0.23953744 5:0.080806199 6:0.49236636 7:0.73201334 8:0.77563435 9:0.81014033 
80 1:0.75074673 2:0.59644485 3:0.39410465 4:0.24243985 5:0.080806199 6:0.5682476 7:0.77436369 8:0.80939809 9:0.83762586 
80 1:0.75655395 2:0.60277782 3:0.39824005 4:0.24398024 5:0.080806199 6:0.61819092 7:0.79656685 8:0.82701901 9:0.85224997 
-80 1:0.69721163 2:0.55523745 3:0.38086064 4:0.24094434 5:0.080806199 6:0.34064599 7:0.70623586 8:0.78732113 9:0.84827998 
-80 1:0.77281987 2:0.5992048 3:0.39561913 4:0.2439266 5:0.080806199 6:0.61397153 7:0.86607505 8:0.89245797 9:0.91028564 
-80 1:0.87444208 2:0.77929538 3:0.70678088 4:0.64743763 6:0.99805736 7:0.98458589 8:0.97797705 9:0.97677001 
80 1:0.98938735 2:0.9876154 3:0.97719078 4:1 6:0.98654808 7:0.97765281 8:0.97229661 9:0.97154022 
-80 1:0.8365199 2:0.67507117 3:0.52008945 4:0.43722574 6:0.99883049 7:0.98522305 8:0.97855986 9:0.97736293 
-50.74779892854612 1:1 2:1 3:1 4:0.97095422 6:0.98721013 7:0.97844318 8:0.97308997 9:0.97240987 
80 1:0.32383552 2:0.077111215 3:0.03833315 4:0.063086485 5:1 6:0.23100641 7:0.27092038 8:0.32517781 9:0.40905736 
80 1:0.60846707 2:0.31854141 3:0.26871427 4:0.20729887 5:1 6:0.25485006 7:0.47759008 8:0.5887694 9:0.69554018 
78.32919693252134 1:0.59000227 2:0.37440344 3:0.28980983 4:0.21663681 5:1 6:0.29270445 7:0.5785896 8:0.690185 9:0.78516577 
-26.02197823528135 1:0.37197649 2:0.23422884 3:0.3023398 4:0.25178233 5:1 6:0.41596718 7:0.74481518 8:0.91501944 9:0.98067315 
-23.05256314744918 1:0.33287447 2:0.10239809 3:0.10747727 4:0.17996084 5:1 6:0.27039173 7:0.38378139 8:0.50933592 9:0.69824257 
-11.06872677961429 1:0.31210362 2:0.057295205 4:-1.7347235e-18 5:1 6:0.094270709 7:0.018802513 
-80 1:0.66770623 2:0.35282532 3:0.13662735 4:0.091039349 5:0.069548121 6:0.18515464 7:0.3726809 8:0.45233334 9:0.52730107 
-80 1:0.72214726 2:0.46710571 3:0.2963471 4:0.20962268 5:0.069548121 6:0.25076794 7:0.6342491 8:0.7552525 9:0.83539442 
-80 1:0.71931765 2:0.48272393 3:0.31975412 4:0.22045471 5:0.069548121 6:0.29263645 7:0.72443141 8:0.83045817 9:0.89124876 
-80 1:0.68174839 2:0.43710304 3:0.33591472 4:0.25108474 5:0.069548121 6:0.43239266 7:0.89858743 8:0.9813478 9:0.99663876 
-56.14676151214694 1:0.65451557 2:0.33605052 3:0.10202307 4:0.030926482 5:0.069548121 6:0.090406535 7:0.17700847 8:0.19768533 9:0.20235059 
80 1:0.33310371 2:0.36708615 3:0.2183333 4:0.2011145 5:0.47119592 6:0.077705335 7:0.29858911 8:0.43520497 9:0.57961699 
80 1:0.10884304 2:0.12970016 3:0.22632743 4:0.24269651 5:0.47119592 6:0.099744897 7:0.45191276 8:0.76354083 9:0.95604056 
-57.84716041680871 1:0.097788616 2:0.087024204 3:0.14815637 4:0.21141277 5:0.47119592 6:0.07193089 7:0.27091805 8:0.51260781 9:0.78070499 
-80 1:0.23776551 2:0.086685944 3:0.050291849 4:0.06665181 5:0.42428748 6:0.071638907 7:0.13224227 8:0.20428005 9:0.30877299 
-80 1:0.25073889 2:0.12757765 3:0.1194554 4:0.13461902 5:0.42428748 6:0.14329817 7:0.33157832 8:0.45344591 9:0.58877851 
-80 1:0.49563186 2:0.44704808 3:0.24367545 4:0.21153238 5:0.42428748 6:0.13183355 7:0.44104522 8:0.56803655 9:0.68619133 
-80 1:0.44631325 2:0.30475719 3:0.26296334 4:0.19814996 5:0.42428748 6:0.081873408 7:0.27885351 8:0.40334011 9:0.53250266 
-80 1:0.25285549 2:0.13594689 3:0.17229938 4:0.21805489 5:0.42428748 6:0.12145872 7:0.3542242 8:0.57349165 9:0.80983219 
80 1:0.30600621 2:0.041318007 3:0.040729963 4:0.072719085 5:0.45697097 6:0.15844365 7:0.1996496 8:0.26877919 9:0.37850349 
80 1:0.32773059 2:0.085022813 3:0.095451301 4:0.12188055 5:0.45697097 6:0.22524586 7:0.33251735 8:0.43190582 9:0.56276766 
80 1:0.37492449 2:0.21039057 3:0.29730414 4:0.25279012 5:0.45697097 6:0.27551307 7:0.59898251 8:0.85520663 9:0.97815661 
-47.67776708188643 1:0.31206319 2:0.05516231 3:0.088285707 4:0.16602788 5:0.45697097 6:0.14239006 7:0.20994854 8:0.33290865 9:0.56109762 
-80 1:0.62995632 2:0.36250202 3:0.30979225 4:0.21394154 5:0.45697097 6:0.17749888 7:0.40464094 8:0.52921506 9:0.65072886 
-80 1:0.28644805 2:0.054223348 3:0.044711615 4:0.080707256 5:0.42703211 6:0.14461867 7:0.1907061 8:0.26624091 9:0.38270892 
80 1:0.3046285 2:0.09466356 3:0.097412409 4:0.12953831 5:0.42703211 6:0.21357999 7:0.3246433 8:0.42801287 9:0.56495585 
-80 1:0.34971844 2:0.22599274 3:0.30430989 4:0.25309465 5:0.42703211 6:0.28338459 7:0.63544099 8:0.88150586 9:0.98017119 
-80 1:0.29656266 2:0.06824136 3:0.09264228 4:0.17690026 5:0.42703211 6:0.13832622 7:0.21809062 8:0.35183132 9:0.58429617 
-80 1:0.58986943 2:0.36199153 3:0.30286282 4:0.21567646 5:0.42703211 6:0.17328057 7:0.43051433 8:0.56353221 9:0.68571169 
-80 1:0.42346752 2:0.14522695 3:0.075947628 4:0.091290271 5:0.71182509 6:0.27492154 7:0.37170928 8:0.4364705 9:0.51994504 
-80 1:0.43327296 2:0.17835224 3:0.12843183 4:0.13825393 5:0.71182509 6:0.35672691 7:0.51237318 8:0.59403526 9:0.68616432 
80 1:0.46203528 2:0.28416372 3:0.32259151 4:0.25465393 5:0.71182509 6:0.4648918 7:0.82838551 8:0.9529577 9:0.9895445 
80 1:0.43263448 2:0.16329575 3:0.12982152 4:0.18668361 5:0.71182509 6:0.30159727 7:0.46783244 8:0.59522184 9:0.76584146 
-80 1:0.62895304 2:0.41564415 3:0.30716763 4:0.22097379 5:0.71182509 6:0.3042363 7:0.6600703 8:0.7667726 9:0.84185827 
-80 1:0.61261399 2:0.3615058 3:0.2744777 4:0.16752066 5:0.71182509 6:0.2082959 7:0.42192734 8:0.55504557 9:0.62156016 
80 1:0.17317279 2:0.11337987 3:0.10198078 4:0.12691391 5:0.028073059 6:0.10494329 7:0.24964152 8:0.37819549 9:0.529214 
19.38809545921251 1:0.16454993 2:0.078894358 3:0.04073128 4:0.060302046 5:0.028073059 6:0.035208336 7:0.041031312 8:0.10798674 9:0.21937004 
-80 1:0.34669697 2:0.31000933 3:0.27018525 4:0.19715479 5:0.028073059 6:0.072998999 7:0.28166741 8:0.42304254 9:0.56607796 
-76.62866957905004 1:0.17579164 2:0.12396663 3:0.15388353 4:0.209279 5:0.028073059 6:0.078480179 7:0.26518059 8:0.50806955 9:0.78221364 
-43.40297716900133 1:0.027860685 2:0.052725818 3:0.092254593 4:0.12653154 5:0.34558132 6:0.10981618 7:0.25736087 8:0.38034725 9:0.52329683 
80 1:0.013080204 2:0.010762222 3:0.024317683 4:0.05738459 5:0.34558132 6:0.050175598 7:0.073154735 8:0.1403341 9:0.24425535 
-80 1:0.26490629 2:0.27539355 3:0.26915809 4:0.20043202 5:0.34558132 6:0.069293734 7:0.24267751 8:0.36687531 9:0.503676 
-56.35708341537489 1:2.220446e-16 2:-2.7755576e-17 3:0.019622618 4:0.052056821 5:0.28107704 6:0.013982545 8:0.056656621 9:0.16291695 
-48.23308575789213 1:0.23178817 2:0.24620409 3:0.25408735 4:0.18722551 5:0.28107704 6:0.028422665 7:0.13594775 8:0.24080325 9:0.37366823 
80 1:0.21035644 2:0.18156085 3:0.19981094 4:0.13886541 5:0.28107704 7:0.0022411834 8:0.066551717 9:0.12894397 
56.83794807143525 1:0.015272087 2:0.047134342 3:0.13336271 4:0.20402557 5:0.28107704 6:0.034439645 7:0.16202332 8:0.38983144 9:0.6942315 
-80 1:0.6615874 2:0.27232179 3:0.083053103 4:0.073125778 5:0.60338324 6:0.31608883 7:0.36588784 8:0.4164545 9:0.48803668 
13.23722087740367 1:0.66792887 2:0.30392653 3:0.13155985 4:0.12028814 5:0.60338324 6:0.41168366 7:0.50526574 8:0.57269817 9:0.65691529 
-80 1:0.80713882 2:0.51211569 3:0.34101678 4:0.22572279 5:0.60338324 6:0.42288483 7:0.76051496 8:0.8526194 9:0.90926682 
-79.98987224572519 1:0.67134876 2:0.30155967 3:0.15166233 4:0.18242482 5:0.60338324 6:0.39990459 7:0.53402243 8:0.64810684 9:0.80001356 
-80 1:0.7005142 2:0.43845852 3:0.34517047 4:0.25473143 5:0.60338324 6:0.63040811 7:0.88570783 8:0.96730408 9:0.99157514 
80 1:0.68213131 2:0.28058103 3:0.077801761 4:0.068223475 5:0.3228518 6:0.14517663 7:0.17772805 8:0.24902301 9:0.34365984 
80 1:0.68544367 2:0.30399795 3:0.12044781 4:0.11499831 5:0.3228518 6:0.24413045 7:0.33346644 8:0.43120996 9:0.54475715 
-80 1:0.77172301 2:0.46998574 3:0.31559408 4:0.22259438 5:0.3228518 6:0.32851395 7:0.69318071 8:0.81795694 9:0.89102412 
58.11773581269392 1:0.77350598 2:0.39895032 3:0.21546317 4:0.17183929 5:0.3228518 6:0.14744307 7:0.28138869 8:0.40402815 9:0.54463675 
80 1:0.69010054 2:0.31182859 3:0.15273727 4:0.18340603 5:0.3228518 6:0.24577123 7:0.39060599 8:0.55334348 9:0.7508768 
-80 1:0.71654734 2:0.43917561 3:0.33687581 4:0.25394293 5:0.3228518 6:0.54714022 7:0.8660066 8:0.97344456 9:0.99929031 
-80 1:0.70998674 2:0.35371936 3:0.11652509 4:0.082714816 5:0.44749477 6:0.36539921 7:0.45795084 8:0.51653268 9:0.57484751 
-80 1:0.71224204 2:0.37352442 3:0.15804348 4:0.1280542 5:0.44749477 6:0.44527654 7:0.57679531 8:0.64987015 9:0.71905386 
-80 1:0.79302355 2:0.51797027 3:0.3337347 4:0.2273717 5:0.44749477 6:0.48361979 7:0.81107179 8:0.88957014 9:0.93024889 
-80 1:0.79514964 2:0.46688846 3:0.24889452 4:0.18772359 5:0.44749477 6:0.32860388 7:0.50662373 8:0.61821263 9:0.72694327 
-80 1:0.71536475 2:0.3779809 3:0.18619713 4:0.19281197 5:0.44749477 6:0.4548703 7:0.63450158 8:0.75205751 9:0.86876369 
-80 1:0.73123785 2:0.47319294 3:0.35023828 4:0.25514676 5:0.44749477 6:0.66202438 7:0.92663779 8:0.98249599 9:0.99346598 
80 1:0.64412554 2:0.27780043 3:0.09284859 4:0.077804621 5:0.48154423 6:0.2887701 7:0.34928681 8:0.4067087 9:0.47767896 
-1.341454391945379 1:0.64795101 2:0.30161922 3:0.13663593 4:0.1242545 5:0.48154423 6:0.38607855 7:0.49556916 8:0.57232736 9:0.65674891 
-80 1:0.7588372 2:0.48531959 3:0.32321804 4:0.22426781 5:0.48154423 6:0.42483872 7:0.77679636 8:0.86492436 9:0.91386891 
80 1:0.75023446 2:0.40873834 3:0.23424198 4:0.18580267 5:0.48154423 6:0.25497591 7:0.42218602 8:0.54198508 9:0.66977946 
80 1:0.65014844 2:0.30242253 3:0.16187218 4:0.18714353 5:0.48154423 6:0.39578242 7:0.55863938 8:0.68876387 9:0.83469934 
-80 1:0.6722761 2:0.40972855 3:0.33245211 4:0.25441738 5:0.48154423 6:0.63520256 7:0.90993341 8:0.97997121 9:0.9966537 
